-1.368628256903701015e+02;7.420456234608292334e+01;5.519139453280265428e+01;-5.412142043771722655e+01;-1.228474305277614462e+02;-7.148086393771866653e+01;-5.659988035725700684e+02;7.180956941860700908e+02;-1.049834502838728127e+02;-9.525783545102551670e+02;1.149317554961393625e+03;7.615595808307892867e+01;-2.787381859456112352e+02;-6.038088706152196750e+01;7.955457216161156566e+02;-5.600091567733168176e+02;-2.190938577936708498e+02
3.280055351027737487e+01;2.747217951069840751e+02;-2.331219333539216620e+01;1.120281338745300559e+02;2.222550518533803938e+02;9.511744258419556175e+00;2.532576969697273057e+02;-2.809241664292507608e+02;-1.696740252154985740e+02;1.751904276939591512e+02;-6.243526237245184802e+02;-5.844815603311063512e+01;3.599765548291024970e+02;-4.811918695887358410e+01;-3.127365403007630107e+02;2.847867665258813759e+02;-1.904467249618851667e+02
-1.189698200236077668e+02;-2.412579634049357225e+01;-3.615542799083017655e+01;-2.554958101703162043e+01;-1.903826636309871034e+01;-3.386957322817794847e+01;1.480960289938271899e+02;-2.374901266393259220e+02;2.589754898684658997e+02;7.620261514600803139e+02;-5.433185846400643868e+02;6.675114183280463465e+01;-1.217627173137701213e+01;3.727765322909908008e+01;-2.184586074437734169e+02;7.293294770505772817e+01;-1.935156040178132741e+01
9.032354545609668151e+01;-1.273831888520686206e+01;-8.884525765183704848e+00;5.388776763952672688e+00;1.419902030698146866e+01;3.933208052400491539e+01;5.413578630829007210e+01;-8.755049437709868698e+01;-1.377207655968226874e+01;-5.894912628388184572e+01;6.910295374922650069e+01;-7.252260800771389881e+01;-1.815561825256123427e+02;6.857571082817951469e-01;-1.327436886633597339e+02;5.951637178459218802e+01;1.278066950807106679e+02
-1.623206712346560465e+01;-1.512254351413017162e+01;-1.124177604747276149e+01;3.159659862360454152e+00;1.196321391102240739e+01;2.476402572691751658e+01;4.431929410712654516e+01;-1.138652304024386552e+02;-1.376769841316168730e+01;-5.726464470780538818e+01;7.119583952187521447e+01;-3.835598726948108350e+01;1.157359188099815128e+01;1.873882417461371119e+01;-1.019298832267426747e+02;-4.459676190242331018e+01;1.813503192185674209e+02
