-1.874619980415217768e-01;1.020025477897820304e-01;-5.295509974418333154e-02;-6.524439959796965449e-02;-6.407867092792009223e-02;-1.079367126764641804e-01;-8.810325061040322758e-01;1.152634317951350074e+00;-2.472412491228380971e-01;-1.575507427667041771e+00;1.650847686206002196e+00;1.402003766190026701e-01;-3.860028576507569809e-01;-6.876433811067690638e-02;1.233672880667796568e+00;-8.414933201468117741e-01;-3.320902577315006377e-01
6.046070462440456678e-02;1.713562717504951982e-01;-8.514084073458423607e-02;5.217905040679234746e-02;1.583432458744530313e-01;1.931101913209577747e-02;4.166219265804962935e-01;-4.472344122426545332e-01;-1.211851777679357478e-01;5.211027695579663055e-01;-7.631450738753046137e-01;-8.796222246857701710e-02;6.054722938958694289e-01;-1.136946847515975106e-01;-4.942273092712661797e-01;4.906181091888492385e-01;-3.743091025623773160e-01
-1.076939574572322450e-01;1.082368246001910901e-02;-5.937539088706423468e-02;-2.587945910327064947e-02;-8.906205545395658044e-04;-2.201843259365467848e-02;3.104523045999060260e-01;-3.602024225840796401e-01;2.639907764774733212e-01;1.050616163599829678e+00;-1.211273986270986258e+00;1.575524438271838634e-01;1.572825806746785612e-02;1.022867267709820227e-01;-2.794047998880675454e-01;1.944405397329703467e-01;5.176892125259146410e-02
1.538447797296322583e-01;-1.646728292767581786e-02;-1.624264601169375308e-02;9.454871598209466446e-03;2.579655841588547605e-02;6.716926564497234520e-02;8.784127580874789842e-02;-1.548851792642738645e-01;-2.590309156726204251e-02;-1.022954125204871834e-01;1.174485324004025666e-01;-1.102164237739684249e-01;-3.156841943950279283e-01;2.086160929280119966e-02;-2.264339385587750830e-01;9.463040345741755011e-02;2.145975144836953785e-01
-3.966043410552467369e-02;-2.188778625033721906e-02;-2.149606415826021966e-02;5.055950632588845049e-03;2.175073026571314183e-02;4.249982447623328746e-02;7.279387850136653793e-02;-2.000769118756622056e-01;-2.167632702044735432e-02;-9.262124216974459978e-02;1.146795452923220077e-01;-5.555362427812408216e-02;2.868313752905184144e-02;3.660311966352722962e-02;-1.683858873754160157e-01;-9.024808174599194266e-02;3.219700250339885272e-01
